digraph Tree {
node [shape=box, style="filled, rounded", color="black", fontname=helvetica] ;
edge [fontname=helvetica] ;
0 [label="comment_count <= 1796.0\ngini = 0.667\nsamples = 100.0%\nvalue = [0.333, 0.334, 0.333]\nclass = meidum", fillcolor="#ffffff"] ;
1 [label="comment_count <= 304.5\ngini = 0.551\nsamples = 62.0%\nvalue = [0.063, 0.524, 0.413]\nclass = meidum", fillcolor="#d9fae7"] ;
0 -> 1 [labeldistance=2.5, labelangle=45, headlabel="True"] ;
2 [label="views <= 333674.5\ngini = 0.202\nsamples = 23.5%\nvalue = [0.014, 0.888, 0.098]\nclass = meidum", fillcolor="#52e891"] ;
1 -> 2 ;
3 [label="gini = 0.11\nsamples = 21.5%\nvalue = [0.0, 0.942, 0.058]\nclass = meidum", fillcolor="#45e789"] ;
2 -> 3 ;
4 [label="gini = 0.606\nsamples = 2.0%\nvalue = [0.167, 0.318, 0.515]\nclass = high", fillcolor="#dbc6f7"] ;
2 -> 4 ;
5 [label="views <= 87190.5\ngini = 0.534\nsamples = 38.5%\nvalue = [0.093, 0.302, 0.605]\nclass = high", fillcolor="#c8a9f4"] ;
1 -> 5 ;
6 [label="gini = 0.407\nsamples = 8.6%\nvalue = [0.0, 0.715, 0.285]\nclass = meidum", fillcolor="#88efb3"] ;
5 -> 6 ;
7 [label="gini = 0.466\nsamples = 29.9%\nvalue = [0.12, 0.183, 0.697]\nclass = high", fillcolor="#b082ef"] ;
5 -> 7 ;
8 [label="views <= 375560.0\ngini = 0.36\nsamples = 38.0%\nvalue = [0.774, 0.023, 0.203]\nclass = low", fillcolor="#eca571"] ;
0 -> 8 [labeldistance=2.5, labelangle=-45, headlabel="False"] ;
9 [label="category_id <= 12.5\ngini = 0.557\nsamples = 5.7%\nvalue = [0.283, 0.128, 0.588]\nclass = high", fillcolor="#c9abf4"] ;
8 -> 9 ;
10 [label="gini = 0.523\nsamples = 1.9%\nvalue = [0.581, 0.048, 0.371]\nclass = low", fillcolor="#f6d5bd"] ;
9 -> 10 ;
11 [label="gini = 0.469\nsamples = 3.8%\nvalue = [0.136, 0.168, 0.696]\nclass = high", fillcolor="#af81ee"] ;
9 -> 11 ;
12 [label="comment_count <= 5222.0\ngini = 0.241\nsamples = 32.3%\nvalue = [0.861, 0.005, 0.135]\nclass = low", fillcolor="#e99559"] ;
8 -> 12 ;
13 [label="gini = 0.407\nsamples = 12.5%\nvalue = [0.72, 0.007, 0.273]\nclass = low", fillcolor="#efb285"] ;
12 -> 13 ;
14 [label="gini = 0.097\nsamples = 19.8%\nvalue = [0.949, 0.003, 0.048]\nclass = low", fillcolor="#e68844"] ;
12 -> 14 ;
}